Language model created by QuickLM on Mon May 28 22:24:45 EDT 2012
Copyright (c) 1996-2010 Carnegie Mellon University and Alexander I. Rudnicky

The model is in standard ARPA format, designed by Doug Paul while he was at MITRE.

The code that was used to produce this language model is available in Open Source.
Please visit http://www.speech.cs.cmu.edu/tools/ for more information

The (fixed) discount mass is 0.5. The backoffs are computed using the ratio method.
This model based on a corpus of 176 sentences and 32 words

\data\
ngram 1=32
ngram 2=84
ngram 3=152

\1-grams:
-1.0692 </s> -0.3010
-1.0692 <s> -0.2623
-1.3904 CHANNEL -0.2642
-1.3904 DOWN -0.2239
-2.4116 EIGHT -0.2623
-2.4116 EIGHTEEN -0.2623
-2.4116 ELEVEN -0.2623
-2.4116 FIFTEEN -0.2623
-2.4116 FIVE -0.2623
-2.4116 FOUR -0.2623
-2.4116 FOURTEEN -0.2623
-3.0137 MUTE -0.2623
-2.4116 NINE -0.2623
-2.4116 NINETEEN -0.2623
-3.0137 OFF -0.2623
-3.0137 ON -0.2623
-2.4116 ONE -0.2623
-2.4116 SEVEN -0.2623
-2.4116 SEVENTEEN -0.2623
-2.4116 SIX -0.2623
-2.4116 SIXTEEN -0.2623
-1.3702 TELEVISION -0.2623
-2.4116 TEN -0.2623
-2.4116 THIRTEEN -0.2623
-2.4116 THREE -0.2623
-2.4116 TWELVE -0.2623
-2.4116 TWENTY -0.2623
-2.4116 TWO -0.2623
-1.3702 T_V -0.2623
-3.0137 UNMUTE -0.2623
-1.3904 UP -0.2239
-1.3904 VOLUME -0.2642

\2-grams:
-0.6021 <s> TELEVISION 0.0000
-0.6021 <s> T_V 0.0000
-0.6021 CHANNEL DOWN 0.0000
-0.6021 CHANNEL UP 0.0000
-1.6232 DOWN </s> -0.3010
-1.6232 DOWN EIGHT 0.0000
-1.6232 DOWN EIGHTEEN 0.0000
-1.6232 DOWN ELEVEN 0.0000
-1.6232 DOWN FIFTEEN 0.0000
-1.6232 DOWN FIVE 0.0000
-1.6232 DOWN FOUR 0.0000
-1.6232 DOWN FOURTEEN 0.0000
-1.6232 DOWN NINE 0.0000
-1.6232 DOWN NINETEEN 0.0000
-1.6232 DOWN ONE 0.0000
-1.6232 DOWN SEVEN 0.0000
-1.6232 DOWN SEVENTEEN 0.0000
-1.6232 DOWN SIX 0.0000
-1.6232 DOWN SIXTEEN 0.0000
-1.6232 DOWN TEN 0.0000
-1.6232 DOWN THIRTEEN 0.0000
-1.6232 DOWN THREE 0.0000
-1.6232 DOWN TWELVE 0.0000
-1.6232 DOWN TWENTY 0.0000
-1.6232 DOWN TWO 0.0000
-0.3010 EIGHT </s> -0.3010
-0.3010 EIGHTEEN </s> -0.3010
-0.3010 ELEVEN </s> -0.3010
-0.3010 FIFTEEN </s> -0.3010
-0.3010 FIVE </s> -0.3010
-0.3010 FOUR </s> -0.3010
-0.3010 FOURTEEN </s> -0.3010
-0.3010 MUTE </s> -0.3010
-0.3010 NINE </s> -0.3010
-0.3010 NINETEEN </s> -0.3010
-0.3010 OFF </s> -0.3010
-0.3010 ON </s> -0.3010
-0.3010 ONE </s> -0.3010
-0.3010 SEVEN </s> -0.3010
-0.3010 SEVENTEEN </s> -0.3010
-0.3010 SIX </s> -0.3010
-0.3010 SIXTEEN </s> -0.3010
-0.6223 TELEVISION CHANNEL 0.0000
-2.2455 TELEVISION MUTE 0.0000
-2.2455 TELEVISION OFF 0.0000
-2.2455 TELEVISION ON 0.0000
-2.2455 TELEVISION UNMUTE 0.0000
-0.6223 TELEVISION VOLUME 0.0000
-0.3010 TEN </s> -0.3010
-0.3010 THIRTEEN </s> -0.3010
-0.3010 THREE </s> -0.3010
-0.3010 TWELVE </s> -0.3010
-0.3010 TWENTY </s> -0.3010
-0.3010 TWO </s> -0.3010
-0.6223 T_V CHANNEL 0.0000
-2.2455 T_V MUTE 0.0000
-2.2455 T_V OFF 0.0000
-2.2455 T_V ON 0.0000
-2.2455 T_V UNMUTE 0.0000
-0.6223 T_V VOLUME 0.0000
-0.3010 UNMUTE </s> -0.3010
-1.6232 UP </s> -0.3010
-1.6232 UP EIGHT 0.0000
-1.6232 UP EIGHTEEN 0.0000
-1.6232 UP ELEVEN 0.0000
-1.6232 UP FIFTEEN 0.0000
-1.6232 UP FIVE 0.0000
-1.6232 UP FOUR 0.0000
-1.6232 UP FOURTEEN 0.0000
-1.6232 UP NINE 0.0000
-1.6232 UP NINETEEN 0.0000
-1.6232 UP ONE 0.0000
-1.6232 UP SEVEN 0.0000
-1.6232 UP SEVENTEEN 0.0000
-1.6232 UP SIX 0.0000
-1.6232 UP SIXTEEN 0.0000
-1.6232 UP TEN 0.0000
-1.6232 UP THIRTEEN 0.0000
-1.6232 UP THREE 0.0000
-1.6232 UP TWELVE 0.0000
-1.6232 UP TWENTY 0.0000
-1.6232 UP TWO 0.0000
-0.6021 VOLUME DOWN 0.0000
-0.6021 VOLUME UP 0.0000

\3-grams:
-0.6223 <s> TELEVISION CHANNEL
-2.2455 <s> TELEVISION MUTE
-2.2455 <s> TELEVISION OFF
-2.2455 <s> TELEVISION ON
-2.2455 <s> TELEVISION UNMUTE
-0.6223 <s> TELEVISION VOLUME
-0.6223 <s> T_V CHANNEL
-2.2455 <s> T_V MUTE
-2.2455 <s> T_V OFF
-2.2455 <s> T_V ON
-2.2455 <s> T_V UNMUTE
-0.6223 <s> T_V VOLUME
-1.6232 CHANNEL DOWN </s>
-1.6232 CHANNEL DOWN EIGHT
-1.6232 CHANNEL DOWN EIGHTEEN
-1.6232 CHANNEL DOWN ELEVEN
-1.6232 CHANNEL DOWN FIFTEEN
-1.6232 CHANNEL DOWN FIVE
-1.6232 CHANNEL DOWN FOUR
-1.6232 CHANNEL DOWN FOURTEEN
-1.6232 CHANNEL DOWN NINE
-1.6232 CHANNEL DOWN NINETEEN
-1.6232 CHANNEL DOWN ONE
-1.6232 CHANNEL DOWN SEVEN
-1.6232 CHANNEL DOWN SEVENTEEN
-1.6232 CHANNEL DOWN SIX
-1.6232 CHANNEL DOWN SIXTEEN
-1.6232 CHANNEL DOWN TEN
-1.6232 CHANNEL DOWN THIRTEEN
-1.6232 CHANNEL DOWN THREE
-1.6232 CHANNEL DOWN TWELVE
-1.6232 CHANNEL DOWN TWENTY
-1.6232 CHANNEL DOWN TWO
-1.6232 CHANNEL UP </s>
-1.6232 CHANNEL UP EIGHT
-1.6232 CHANNEL UP EIGHTEEN
-1.6232 CHANNEL UP ELEVEN
-1.6232 CHANNEL UP FIFTEEN
-1.6232 CHANNEL UP FIVE
-1.6232 CHANNEL UP FOUR
-1.6232 CHANNEL UP FOURTEEN
-1.6232 CHANNEL UP NINE
-1.6232 CHANNEL UP NINETEEN
-1.6232 CHANNEL UP ONE
-1.6232 CHANNEL UP SEVEN
-1.6232 CHANNEL UP SEVENTEEN
-1.6232 CHANNEL UP SIX
-1.6232 CHANNEL UP SIXTEEN
-1.6232 CHANNEL UP TEN
-1.6232 CHANNEL UP THIRTEEN
-1.6232 CHANNEL UP THREE
-1.6232 CHANNEL UP TWELVE
-1.6232 CHANNEL UP TWENTY
-1.6232 CHANNEL UP TWO
-0.3010 DOWN EIGHT </s>
-0.3010 DOWN EIGHTEEN </s>
-0.3010 DOWN ELEVEN </s>
-0.3010 DOWN FIFTEEN </s>
-0.3010 DOWN FIVE </s>
-0.3010 DOWN FOUR </s>
-0.3010 DOWN FOURTEEN </s>
-0.3010 DOWN NINE </s>
-0.3010 DOWN NINETEEN </s>
-0.3010 DOWN ONE </s>
-0.3010 DOWN SEVEN </s>
-0.3010 DOWN SEVENTEEN </s>
-0.3010 DOWN SIX </s>
-0.3010 DOWN SIXTEEN </s>
-0.3010 DOWN TEN </s>
-0.3010 DOWN THIRTEEN </s>
-0.3010 DOWN THREE </s>
-0.3010 DOWN TWELVE </s>
-0.3010 DOWN TWENTY </s>
-0.3010 DOWN TWO </s>
-0.6021 TELEVISION CHANNEL DOWN
-0.6021 TELEVISION CHANNEL UP
-0.3010 TELEVISION MUTE </s>
-0.3010 TELEVISION OFF </s>
-0.3010 TELEVISION ON </s>
-0.3010 TELEVISION UNMUTE </s>
-0.6021 TELEVISION VOLUME DOWN
-0.6021 TELEVISION VOLUME UP
-0.6021 T_V CHANNEL DOWN
-0.6021 T_V CHANNEL UP
-0.3010 T_V MUTE </s>
-0.3010 T_V OFF </s>
-0.3010 T_V ON </s>
-0.3010 T_V UNMUTE </s>
-0.6021 T_V VOLUME DOWN
-0.6021 T_V VOLUME UP
-0.3010 UP EIGHT </s>
-0.3010 UP EIGHTEEN </s>
-0.3010 UP ELEVEN </s>
-0.3010 UP FIFTEEN </s>
-0.3010 UP FIVE </s>
-0.3010 UP FOUR </s>
-0.3010 UP FOURTEEN </s>
-0.3010 UP NINE </s>
-0.3010 UP NINETEEN </s>
-0.3010 UP ONE </s>
-0.3010 UP SEVEN </s>
-0.3010 UP SEVENTEEN </s>
-0.3010 UP SIX </s>
-0.3010 UP SIXTEEN </s>
-0.3010 UP TEN </s>
-0.3010 UP THIRTEEN </s>
-0.3010 UP THREE </s>
-0.3010 UP TWELVE </s>
-0.3010 UP TWENTY </s>
-0.3010 UP TWO </s>
-1.6232 VOLUME DOWN </s>
-1.6232 VOLUME DOWN EIGHT
-1.6232 VOLUME DOWN EIGHTEEN
-1.6232 VOLUME DOWN ELEVEN
-1.6232 VOLUME DOWN FIFTEEN
-1.6232 VOLUME DOWN FIVE
-1.6232 VOLUME DOWN FOUR
-1.6232 VOLUME DOWN FOURTEEN
-1.6232 VOLUME DOWN NINE
-1.6232 VOLUME DOWN NINETEEN
-1.6232 VOLUME DOWN ONE
-1.6232 VOLUME DOWN SEVEN
-1.6232 VOLUME DOWN SEVENTEEN
-1.6232 VOLUME DOWN SIX
-1.6232 VOLUME DOWN SIXTEEN
-1.6232 VOLUME DOWN TEN
-1.6232 VOLUME DOWN THIRTEEN
-1.6232 VOLUME DOWN THREE
-1.6232 VOLUME DOWN TWELVE
-1.6232 VOLUME DOWN TWENTY
-1.6232 VOLUME DOWN TWO
-1.6232 VOLUME UP </s>
-1.6232 VOLUME UP EIGHT
-1.6232 VOLUME UP EIGHTEEN
-1.6232 VOLUME UP ELEVEN
-1.6232 VOLUME UP FIFTEEN
-1.6232 VOLUME UP FIVE
-1.6232 VOLUME UP FOUR
-1.6232 VOLUME UP FOURTEEN
-1.6232 VOLUME UP NINE
-1.6232 VOLUME UP NINETEEN
-1.6232 VOLUME UP ONE
-1.6232 VOLUME UP SEVEN
-1.6232 VOLUME UP SEVENTEEN
-1.6232 VOLUME UP SIX
-1.6232 VOLUME UP SIXTEEN
-1.6232 VOLUME UP TEN
-1.6232 VOLUME UP THIRTEEN
-1.6232 VOLUME UP THREE
-1.6232 VOLUME UP TWELVE
-1.6232 VOLUME UP TWENTY
-1.6232 VOLUME UP TWO

\end\
